-0.9909704881526284
-0.38272872856894935
-0.33364579830383434
-0.6578868214858529
-0.5536040658497203
-0.9938900756974904
-0.4190639242060237
-0.48788819886814094
-0.7167292878694689
-0.3628671103718162
-0.35786285591932354
0.9947488263240065
0.200323023455812
-0.3879708581369554
0.4384549006757077
0.548758410330932
-0.654973823086271
0.9936674635955822
-0.9716165643084889
0.7346693622167488
0.6678752100192165
-0.11413178626130027
0.12976176116034432
-0.13789769766565163
-0.4558249850529734
-0.914921679551314
-0.024791558932411473
-0.04050893419591994
0.23260798206208055
0.8451839896548403
0.22879526264401906
-0.23390634524440657
0.7755233276384954
0.4848779245762016
0.1229451658840004
-0.5848530591192036
-0.23739526802859157
-0.3723826031829478
-0.6123511974059364
-0.1674384921082066
0.9986000625145239
0.11991709053364041
-0.19283839135667358
0.22896784141381854
-0.3556007029973316
-0.09481548879094559
-0.836036715772722
-0.5311319384804742
-0.901432316073292
-0.6160249564566767
0.7839180084117903
0.3324509189931115
-0.2894829679190041
-0.8919037531291343
0.9842517783416764
0.23673758076342377
-0.175143363585873
-0.2305421468673663
-0.7709395199892408
-0.7279377055861187
0.5907017769933676
0.6217161875596733
0.3414698186835883
0.9038611944886583
0.6837638873384526
0.5224428830887173
0.5224001977460444
0.058457602076147364
0.5105733244767083
0.8781989700406403
-0.10037436997885019
0.4951403957086007
-0.9178382822516322
-0.7486301776030813
-0.6042734792410283
0.8910585288224171
-0.9449257622898546
-0.692960759002029
0.755315266765987
0.8076578310358695
-0.9867222202890746
-0.2914299558051707
0.6828328469614864
0.3923703971589698
-0.2723774924383269
0.8810326525888272
-0.025601390126000156
0.8374227122656113
