-0.07523979898573607
-0.5575761432407293
-0.13738975854322888
-0.9644328264153801
-0.9697840647183567
-0.19335657208085966
-0.6400643522284419
-0.9495192442880882
0.7206176401651954
-0.8513115115819145
0.8253849737992294
-0.04150641297613045
-0.4101247441603755
0.7088595385839676
-0.9761111505610855
0.073714927153818
-0.1515130791075574
0.8734095370742831
0.0009925332063280834
0.07576895593049993
0.6608286667998151
0.3326068163373894
0.40415147570165044
0.9285742514932813
0.9035153633994661
0.43872870729547264
-0.4323773271769922
-0.24133759779206554
-0.9445523928090487
0.12315042632066842
0.6011430860969442
0.9213839785965803
-0.44293776056016476
0.3492216241110715
-0.3452581603338749
-0.5485545991038854
-0.5359671355705495
0.8017591245267421
0.5751090725803498
0.7707248419543502
0.858255720198609
-0.22699584393484606
0.28997878218764095
0.9302116720157758
0.5058706468849554
0.6273363800444256
-0.6887238740680302
-0.8053809353349257
0.47131347917526845
-0.8850694653773774
-0.7553449984912377
0.8083015559327931
-0.010577113463655197
0.7784202163514338
-0.5537183690831451
0.18206360796247267
-0.999150996591061
-0.07701125044284818
0.07729505135866965
-0.9297018893463616
-0.052306587071555555
-0.09404985244675501
-0.899917037961302
-0.8679513469462057
-0.1726958122272786
0.06204326213642486
0.8768475282832873
0.7321496146713318
-0.03176330234024283
0.3538756812844237
-0.9546589787931454
-0.5920945193867815
0.4242438378928144
-0.18044286877692528
0.5500628609678608
0.6356569846297759
-0.24276174482344204
-0.4976134117134443
-0.11233436857865153
-0.732717046215887
0.6608180625005309
0.8955707745419317
0.4061550218593264
0.160243088710748
0.10554425765150754
0.9125015379389896
0.727669358427369
-0.47337446979585907
