0.042900377667242084
-0.3845458867443947
-0.45811651565505485
-0.5763258655044703
-0.07563729334416758
0.3267807506132001
0.566236233478137
0.17117537259381055
-0.06297488023185505
-0.35676338704624744
0.9356635528340598
0.043275769421036614
0.3330787774791162
-0.5248365319121018
-0.7037365990323226
-0.3728085408761428
-0.7933232166823747
-0.0662795735921391
-0.914048479837775
-0.016827129113457184
-0.7271169466808676
0.8066466042135862
-0.9491473796537648
0.4621655468005679
0.27588252352223774
-0.8588811187508534
-0.1765361385438906
0.8029540638988073
0.029599980914990276
0.40642035225399065
0.5912714895687772
0.8327822898793653
-0.6930515074601331
0.27390565412802426
0.5681388709864608
0.2627332816587842
0.3094755341167217
-0.6970675879187078
0.16432701131949945
0.31096528208838636
-0.0483315482520017
-0.7940369283855468
0.6158846426345053
0.2172843587009332
-0.5893431636937303
0.6921126892919855
-0.05394510167271771
-0.5045320139582457
-0.08528020727054941
-0.7168915902556459
0.9103724923968983
0.6584233112610389
-0.2870280448115985
-0.15899084026458365
-0.8612461166468071
-0.3809924560994118
-0.6337760915326225
-0.0740079398929474
-0.37756400695626113
-0.2479120362611058
0.6771398039648133
-0.33807509458028884
-0.060022243933201436
0.6286339778843009
-0.5421408228635436
-0.7433505402712992
-0.20961346845825868
0.802291009819776
0.09185339086769262
0.4358657950708764
-0.0641996256111459
-0.09695774851725147
0.9658432010057654
0.1076784159792672
-0.44354701078478986
-0.9986771665474155
-0.4019501152975449
0.48207230083407593
0.3036961161141529
-0.32878711297960406
0.9124645602357273
-0.8831504808922446
0.7093693237269505
-0.6855132615666191
-0.40539471812854955
-0.0924765834462613
-0.9892699595810823
0.7046051224468595
