-0.3640500849534756
0.23151877254262443
-0.5325486688633849
0.6958330175966649
-0.5787779620768632
-0.7441963896665735
-0.9198467150360341
-0.4581360454514303
0.44364088392040335
0.7395228998940757
0.7403291501279408
-0.5338247180197171
-0.893310072066873
-0.5627892291713597
0.8852907061578383
-0.614897191873651
0.7624254491922746
0.3392826597771421
-0.5500970726782128
0.36157082276573305
0.5723238357797111
-0.5019500249137541
0.9325420525776624
-0.3230920159208712
-0.39399624133558864
0.9739646916726061
0.6314921017630908
-0.3734110322088917
-0.9241611518513284
0.014386521934853125
-0.9027443341059294
0.47159360760946867
0.7806287752176329
0.1744173301087586
-0.17173674379482518
-0.07661976435664597
0.22084579549950045
0.2196298915553565
-0.14908014137115844
0.05968911234026231
0.4423773955073511
-0.9158057137275137
0.9591084876949949
0.06616057232620043
0.011564919414017716
-0.34566851436569035
-0.615659890495633
-0.6003732703961209
-0.5278306478866004
-0.6121916354930472
0.5059778613708317
-0.47717123598316724
0.973639817402536
-0.6883985024292254
-0.3457868334992731
-0.4374984004027205
-0.1055529979833183
0.19747925169119895
0.07220814664108532
-0.3424417302935545
-0.6223830172911817
0.8696563842028324
-0.33258420105367437
0.6531769069687419
-0.13776472245871152
-0.21739531124720957
0.8261808207773689
0.1408604324697409
-0.4745651157781521
0.8386998605526776
0.3492295071636138
-0.8881359960594828
-0.7066916141764708
0.1111173169983195
0.4542041564458328
-0.6645836950509918
0.6206757103719498
0.07244544103033013
-0.7221545902236559
-0.1160805630179873
-0.6860908373843542
-0.40633749807260733
0.9510259655810505
-0.7244970319422144
-0.6138173072940618
0.7474523661629637
0.6804459503818154
0.2216720465504196
