0.6091701842202215
0.27600566867040865
0.23700589129182847
-0.28667135846209124
0.5126085584854689
0.5412896092617152
-0.6320402450245777
0.6932395346101345
-0.9651002693969315
0.3652362816500214
-0.03605568562939365
-0.8885091828864258
-0.6046418293469316
0.9876912125278028
0.2683469802506129
0.05785773538837202
0.019137253473273885
-0.9022603442247592
-0.3675206064364054
0.5463578305884944
0.7059261738647786
0.05062317277565498
-0.9580269629316924
-0.7057893700704692
0.8092144684745464
-0.0508363025748193
-0.47276710081780315
0.584705643835459
0.0940732785053946
-0.10628453194883547
0.8077221003567057
0.7203492191261176
0.9677090572816844
0.7685535192649235
0.2503801150969627
0.5171202994127782
-0.5620096162416792
-0.957150515765504
-0.7736644756406241
-0.8197430935302048
0.5147226452212772
0.48551776193775953
0.41717281796583006
-0.36890980748690594
-0.9549672175501007
0.9371013805583499
0.3747377198421187
0.4462719167708249
0.34350897646729894
0.4996450374302208
0.5824832888917539
0.722352682185613
-0.3062075633828487
-0.7769414850522092
-0.7514798224667569
0.2788333734240309
0.8159813259792548
-0.8429895786570509
-0.23789168490532675
0.6250740158139858
-0.526293216876762
0.8213798750846235
0.8957065287377621
0.8156876636570332
-0.8499944518056373
0.615972943574328
-0.07116125032165344
0.7120899880998097
-0.23391669402789073
-0.6976082528569294
0.11900963303466527
0.053293341652062454
0.4501891267066678
-0.07154978794952993
-0.14026612807251282
-0.7453936893054298
0.046828502931285376
0.5857424639659001
0.9236546905681633
0.4856893478623032
0.9527110188399777
0.48068714550068115
-0.4388991649043714
-0.41046474490731155
0.8840778560465414
0.5288600660894425
0.7571409790745904
0.6441378658425294
