-0.20696493302829988
0.04449157691105432
0.1235285538894888
0.3356495410496536
0.9317229608562154
-0.8024652974440791
-0.05269764430028556
-0.846282071078458
-0.7620484151557623
0.9799374376729613
0.09593705002421493
-0.4996928294620089
-0.8416785243011247
0.49966720403112097
0.186855281498143
-0.17308645285765434
-0.3510715828380131
-0.6719218595315426
0.9965804430997673
0.6927412422412451
0.4179011112254494
-0.23263364639587003
0.047421747884963894
0.523026725440374
0.8357021003061313
-0.14272848787377468
-0.11575364171031621
0.2393296694772058
-0.24104100049760402
0.6993938170146654
0.20558274840995572
-0.934759212965937
-0.7762850843079576
0.042553966202238946
-0.2757302473073078
-0.21463506211762673
0.19901851248266667
-0.05811395626047022
-0.8481432170635774
-0.27570325612642943
0.6842376545269069
-0.43736187170960217
0.9729114681329174
0.9879328934624352
0.13738845743145855
-0.5625404177373898
0.5495803965296877
-0.5862571758970487
0.30660042635989226
-0.4635374031273374
-0.5066085303547618
0.36391636382349724
0.9908851312218341
-0.45283414128081145
-0.20085135862611558
-0.7526975757833672
-0.1525530465039573
0.6455760906353671
0.3385232712835462
0.7841011113988865
-0.8398792552373768
-0.5740841252640059
0.6607217086506232
0.31922980668810186
0.230026126531385
0.15405152276207468
-0.5643363594523918
-0.3677551327300932
-0.6255775179599421
-0.23553042912893485
-0.7638866212161695
0.47921646898074277
-0.6954313679061834
0.4558760037358818
-0.2578574895329251
0.9895452016871722
0.2523934605049092
0.6060600711709265
0.7860800301777082
0.5652868745377866
0.7202350532685085
-0.9571649228145316
0.6000210543650455
-0.366148421567678
0.22169451674739404
0.007448986229655397
0.46676090619490385
-0.1990761944884154
